<?xml version="1.0"?>
<opencv_storage>
<stage8>
  <maxWeakCount>8</maxWeakCount>
  <stageThreshold>-1.4551541805267334e+00</stageThreshold>
  <weakClassifiers>
    <_>
      <internalNodes>
        0 -1 13665 9.6649616956710815e-02</internalNodes>
      <leafValues>
        -8.3561640977859497e-01 -2.2118380665779114e-01</leafValues></_>
    <_>
      <internalNodes>
        0 -1 60106 -2.7403570711612701e-02</internalNodes>
      <leafValues>
        9.8741307854652405e-02 -6.9828885793685913e-01</leafValues></_>
    <_>
      <internalNodes>
        0 -1 117294 1.8964022397994995e-02</internalNodes>
      <leafValues>
        -2.9483658075332642e-01 5.0900375843048096e-01</leafValues></_>
    <_>
      <internalNodes>
        0 -1 1050 6.1097301542758942e-02</internalNodes>
      <leafValues>
        -4.5553630590438843e-01 3.0515453219413757e-01</leafValues></_>
    <_>
      <internalNodes>
        0 -1 161721 -8.3357654511928558e-03</internalNodes>
      <leafValues>
        4.5525306463241577e-01 -3.5110744833946228e-01</leafValues></_>
    <_>
      <internalNodes>
        0 -1 1321 8.6106300354003906e-02</internalNodes>
      <leafValues>
        -4.3735197186470032e-01 3.1679198145866394e-01</leafValues></_>
    <_>
      <internalNodes>
        0 -1 160292 4.3264161795377731e-03</internalNodes>
      <leafValues>
        -2.1777096390724182e-01 6.3308358192443848e-01</leafValues></_>
    <_>
      <internalNodes>
        0 -1 68121 1.0018247121479362e-04</internalNodes>
      <leafValues>
        -2.9391309618949890e-01 3.7595608830451965e-01</leafValues></_></weakClassifiers></stage8>
</opencv_storage>
